{
    "input_nodes": 6,
    "hidden_nodes": 8,
    "output_nodes": 2,
    "weights_ih": {
        "rows": 8,
        "cols": 6,
        "data": [
            [
                0.8857723490355939,
                -0.5199680990157338,
                0.3857450278200949,
                0.6450416744990234,
                -0.7211995066087102,
                0.545960149725937
            ],
            [
                -0.7536314165397169,
                -0.4763004979553984,
                0.3712281392928163,
                -0.7397722049435576,
                0.19120594386635686,
                0.7348728262155806
            ],
            [
                -0.31928767312632256,
                -0.9008427102893435,
                0.8947742459418611,
                -0.45758616868919066,
                0.11881168981562776,
                -0.6797043134557401
            ],
            [
                -0.8544494504624813,
                0.021293670777407195,
                0.19190319740079131,
                0.37044934785385225,
                -0.1288432923850935,
                0.9636354214607696
            ],
            [
                0.4873468436290694,
                0.05033455042917253,
                -0.2770963154926831,
                0.4920554018146252,
                0.6309059763295605,
                -0.5981625370089466
            ],
            [
                0.2833939002250883,
                -0.1642112871113601,
                -0.16062405889030434,
                -0.2854202371539183,
                0.43596749036230203,
                0.0874709875745025
            ],
            [
                -0.6792529169462911,
                0.43422727106329984,
                -0.14199420675357352,
                0.17430693330498723,
                0.5778434196557776,
                0.5302453301770673
            ],
            [
                -0.06647519638176447,
                -0.3860627349471131,
                -0.021924573531577174,
                0.5680759048464051,
                -0.32504408491783465,
                0.343941414040232
            ]
        ]
    },
    "weights_ho": {
        "rows": 2,
        "cols": 8,
        "data": [
            [
                -0.04419073648716469,
                0.15503549457286453,
                0.06582665067784987,
                0.4656265403559418,
                0.040913792661340716,
                0.3474425197756187,
                0.6504619042442199,
                -0.9202899069576832
            ],
            [
                -0.2697487564114078,
                0.6716885364043246,
                -0.31348151594689005,
                -0.02394153248990255,
                0.22844991176642715,
                -0.7044723369859105,
                0.6782537430124873,
                0.8715980371007946
            ]
        ]
    },
    "bias_h": {
        "rows": 8,
        "cols": 1,
        "data": [
            [
                -0.9451328335991581
            ],
            [
                0.21488048206780122
            ],
            [
                -0.2585224982151097
            ],
            [
                0.7619450259525711
            ],
            [
                0.7230967047993286
            ],
            [
                1.070503472410857
            ],
            [
                0.4134066157819729
            ],
            [
                0.7053751182488621
            ]
        ]
    },
    "bias_o": {
        "rows": 2,
        "cols": 1,
        "data": [
            [
                0.3922013383582452
            ],
            [
                0.08585736954097933
            ]
        ]
    },
    "learning_rate": 0.1,
    "activation_function": {
        "name": "sigmoid"
    }
}