{
    "info": [
        6,
        8,
        2
    ],
    "weights": [
        {
            "rows": 8,
            "cols": 6,
            "data": [
                [
                    0.7781670234558826,
                    -0.5464728638804623,
                    -0.5654963850660453,
                    -1.1417752753788075,
                    -0.34743781976701904,
                    -0.3732371402896282
                ],
                [
                    -0.7254941298873692,
                    -0.1364886632262182,
                    0.11161426943903391,
                    1.0341817089160084,
                    -0.799235950800869,
                    -0.15001922329365353
                ],
                [
                    -0.7737977892279754,
                    0.5082520839030144,
                    -0.21580231505599734,
                    0.13590511160315752,
                    -0.9911251384741337,
                    0.19148462729977628
                ],
                [
                    0.6718841394058153,
                    -0.4402810437560136,
                    0.5849829901101254,
                    -0.7259775678999117,
                    -0.8957524016059,
                    -0.3589820075550222
                ],
                [
                    -0.4376369145707568,
                    -0.5272940411874787,
                    -0.7311723385097852,
                    1.047900635341937,
                    -1.221128787224327,
                    -0.729955923994758
                ],
                [
                    -0.2224787628155717,
                    1.0066031714041368,
                    -0.9667474265579918,
                    -0.8902577056556671,
                    0.7739157824944451,
                    0.8013975895292971
                ],
                [
                    -1.0532798096434093,
                    -0.9108621299528892,
                    -0.4026424787507642,
                    -0.29471650793970655,
                    0.3706329528494827,
                    0.9826035503826082
                ],
                [
                    0.7154281022413039,
                    -0.7591644396393002,
                    0.13796582534532328,
                    -0.686291663435116,
                    0.7632774131933557,
                    0.32836632175906255
                ]
            ]
        },
        {
            "rows": 2,
            "cols": 8,
            "data": [
                [
                    0.49986939111558176,
                    -0.9052710847922373,
                    0.45126614075875804,
                    0.33043480041929413,
                    -0.21444489324520766,
                    0.8304345506141979,
                    -0.6769714874592389,
                    -0.8228748583750007
                ],
                [
                    -0.5065879387768742,
                    -0.0032042599289236473,
                    0.6180265258253962,
                    0.9221066959206987,
                    -0.2556332534266338,
                    0.5994893794451095,
                    0.35160252092384203,
                    -0.6381778878209157
                ]
            ]
        }
    ],
    "bias": [
        {
            "rows": 8,
            "cols": 1,
            "data": [
                [
                    -0.41212886116179126
                ],
                [
                    0.23679989330145435
                ],
                [
                    0.6881839854361504
                ],
                [
                    -0.12133306973449183
                ],
                [
                    1.118882380544175
                ],
                [
                    -0.5320786319430215
                ],
                [
                    0.2813763393306059
                ],
                [
                    -0.44787599408569545
                ]
            ]
        },
        {
            "rows": 2,
            "cols": 1,
            "data": [
                [
                    0.7253595965693364
                ],
                [
                    -0.2949881050420787
                ]
            ]
        }
    ],
    "learning_rate": 0.1,
    "activation_function": {}
}