{
    "input_nodes": 6,
    "hidden_nodes": 8,
    "output_nodes": 2,
    "weights_ih": {
        "rows": 8,
        "cols": 6,
        "data": [
            [
                0.4359328881028341,
                -0.4650695788055439,
                1.1576363757459216,
                0.420647666105914,
                -0.673340359111124,
                1.4138784047759394
            ],
            [
                -0.6989967279858507,
                -0.9734292186951786,
                -0.6084202513717052,
                0.8919092853551569,
                0.5043881406643531,
                -1.040206493152521
            ],
            [
                -1.3923661372808172,
                0.21883179325661084,
                -1.0005377187721707,
                -0.6720633172743546,
                0.6122914932820953,
                -1.1342792755310507
            ],
            [
                -0.21560500860920156,
                -0.40932746709608897,
                0.1767398227567119,
                -0.8795766918636319,
                -0.2997025630888307,
                -0.1206430025034833
            ],
            [
                0.9246950716460542,
                -0.4070663166964114,
                -0.06647432584284138,
                -1.4501380871214005,
                -0.10582868631772192,
                -0.44753883245068865
            ],
            [
                0.17019162747040573,
                -1.0442150786745383,
                0.6465844501545024,
                -0.724370656469254,
                0.952178485237316,
                0.6029836769250314
            ],
            [
                0.15072088776945242,
                -0.465841515028765,
                0.8960964387422253,
                -0.5782574619367735,
                0.2816506214730632,
                -0.8288943726457096
            ],
            [
                -1.2626035801033293,
                0.8192599968834279,
                -1.0690845719493969,
                0.3584723326056614,
                1.02039324021468,
                -0.3510505014754258
            ]
        ]
    },
    "weights_ho": {
        "rows": 2,
        "cols": 8,
        "data": [
            [
                -0.524701276020969,
                -0.6713012536311586,
                0.1284794959179007,
                0.3136091875223419,
                1.1215786065387268,
                0.8513283456559648,
                0.300378708714092,
                0.5255273422489997
            ],
            [
                -0.2783755626778842,
                1.1938916437328642,
                0.878620048892757,
                0.058773819046769094,
                -0.8662523338948274,
                0.4567266424424597,
                -0.40918731687684884,
                0.45083838926438086
            ]
        ]
    },
    "bias_h": {
        "rows": 8,
        "cols": 1,
        "data": [
            [
                -0.6875903271445931
            ],
            [
                0.5291800285385373
            ],
            [
                -0.5404944898939671
            ],
            [
                -0.6041309713485387
            ],
            [
                -0.06471854074477634
            ],
            [
                0.18631581696238458
            ],
            [
                0.6069383559442538
            ],
            [
                1.051963841888192
            ]
        ]
    },
    "bias_o": {
        "rows": 2,
        "cols": 1,
        "data": [
            [
                0.03375578304350613
            ],
            [
                0.25761799433625865
            ]
        ]
    },
    "learning_rate": 0.1,
    "activation_function": {
        "name": "sigmoid"
    }
}